<?xml version="1.0"?>
<opencv_storage>
<cascade>
  <stageType>BOOST</stageType>
  <featureType>HAAR</featureType>
  <height>24</height>
  <width>24</width>
  <stageParams>
    <boostType>GAB</boostType>
    <minHitRate>9.9500000476837158e-01</minHitRate>
    <maxFalseAlarm>2.0000000298023224e-01</maxFalseAlarm>
    <weightTrimRate>9.4999999999999996e-01</weightTrimRate>
    <maxDepth>1</maxDepth>
    <maxWeakCount>100</maxWeakCount></stageParams>
  <featureParams>
    <maxCatCount>0</maxCatCount>
    <featSize>1</featSize>
    <mode>BASIC</mode></featureParams>
  <stageNum>10</stageNum>
  <stages>
    <!-- stage 0 -->
    <_>
      <maxWeakCount>3</maxWeakCount>
      <stageThreshold>-1.0253208875656128e+00</stageThreshold>
      <weakClassifiers>
        <_>
          <internalNodes>
            0 -1 23 1.1694130301475525e-01</internalNodes>
          <leafValues>
            -9.4029849767684937e-01 7.4358975887298584e-01</leafValues></_>
        <_>
          <internalNodes>
            0 -1 18 1.0621308535337448e-01</internalNodes>
          <leafValues>
            -8.3898371458053589e-01 7.7144306898117065e-01</leafValues></_>
        <_>
          <internalNodes>
            0 -1 10 7.3141409084200859e-03</internalNodes>
          <leafValues>
            -8.6449271440505981e-01 7.5396132469177246e-01</leafValues></_></weakClassifiers></_>
    <!-- stage 1 -->
    <_>
      <maxWeakCount>2</maxWeakCount>
      <stageThreshold>-2.0509339869022369e-01</stageThreshold>
      <weakClassifiers>
        <_>
          <internalNodes>
            0 -1 27 -6.5808773040771484e-02</internalNodes>
          <leafValues>
            9.1304349899291992e-01 -8.3410137891769409e-01</leafValues></_>
        <_>
          <internalNodes>
            0 -1 35 1.9627008587121964e-02</internalNodes>
          <leafValues>
            -8.4952962398529053e-01 6.2900799512863159e-01</leafValues></_></weakClassifiers></_>
    <!-- stage 2 -->
    <_>
      <maxWeakCount>2</maxWeakCount>
      <stageThreshold>-4.2512968182563782e-01</stageThreshold>
      <weakClassifiers>
        <_>
          <internalNodes>
            0 -1 8 9.8356164991855621e-02</internalNodes>
          <leafValues>
            -9.1709846258163452e-01 3.6170211434364319e-01</leafValues></_>
        <_>
          <internalNodes>
            0 -1 21 -4.3652385473251343e-02</internalNodes>
          <leafValues>
            6.0240298509597778e-01 -7.8683179616928101e-01</leafValues></_></weakClassifiers></_>
    <!-- stage 3 -->
    <_>
      <maxWeakCount>4</maxWeakCount>
      <stageThreshold>-7.1791124343872070e-01</stageThreshold>
      <weakClassifiers>
        <_>
          <internalNodes>
            0 -1 16 -2.9100172221660614e-02</internalNodes>
          <leafValues>
            5.6521737575531006e-01 -7.9723501205444336e-01</leafValues></_>
        <_>
          <internalNodes>
            0 -1 28 -3.4725584089756012e-02</internalNodes>
          <leafValues>
            4.9036863446235657e-01 -6.7812401056289673e-01</leafValues></_>
        <_>
          <internalNodes>
            0 -1 12 -1.4388374984264374e-02</internalNodes>
          <leafValues>
            5.4447585344314575e-01 -8.0525976419448853e-01</leafValues></_>
        <_>
          <internalNodes>
            0 -1 2 -2.2721735294908285e-03</internalNodes>
          <leafValues>
            3.9421492815017700e-01 -9.8692035675048828e-01</leafValues></_></weakClassifiers></_>
    <!-- stage 4 -->
    <_>
      <maxWeakCount>4</maxWeakCount>
      <stageThreshold>-2.4522955715656281e-01</stageThreshold>
      <weakClassifiers>
        <_>
          <internalNodes>
            0 -1 0 4.4233758002519608e-02</internalNodes>
          <leafValues>
            -8.1132078170776367e-01 4.2857143282890320e-01</leafValues></_>
        <_>
          <internalNodes>
            0 -1 33 -3.6083951592445374e-02</internalNodes>
          <leafValues>
            7.0033413171768188e-01 -5.9817910194396973e-01</leafValues></_>
        <_>
          <internalNodes>
            0 -1 37 2.2615888155996799e-03</internalNodes>
          <leafValues>
            -8.8802772760391235e-01 4.2835614085197449e-01</leafValues></_>
        <_>
          <internalNodes>
            0 -1 29 1.0786618106067181e-02</internalNodes>
          <leafValues>
            -5.0397801399230957e-01 9.2096501588821411e-01</leafValues></_></weakClassifiers></_>
    <!-- stage 5 -->
    <_>
      <maxWeakCount>6</maxWeakCount>
      <stageThreshold>-6.0473465919494629e-01</stageThreshold>
      <weakClassifiers>
        <_>
          <internalNodes>
            0 -1 17 1.3069835305213928e-01</internalNodes>
          <leafValues>
            -7.6106196641921997e-01 8.5714286565780640e-01</leafValues></_>
        <_>
          <internalNodes>
            0 -1 15 1.8623743206262589e-02</internalNodes>
          <leafValues>
            -6.7373710870742798e-01 6.8949216604232788e-01</leafValues></_>
        <_>
          <internalNodes>
            0 -1 7 4.8997299745678902e-03</internalNodes>
          <leafValues>
            4.2468705773353577e-01 -1.</leafValues></_>
        <_>
          <internalNodes>
            0 -1 24 -2.3805771023035049e-02</internalNodes>
          <leafValues>
            9.1682761907577515e-01 -4.0790182352066040e-01</leafValues></_>
        <_>
          <internalNodes>
            0 -1 4 1.9061464117839932e-03</internalNodes>
          <leafValues>
            4.3419939279556274e-01 -9.1320800781250000e-01</leafValues></_>
        <_>
          <internalNodes>
            0 -1 34 7.3985353810712695e-04</internalNodes>
          <leafValues>
            3.7907978892326355e-01 -8.7910538911819458e-01</leafValues></_></weakClassifiers></_>
    <!-- stage 6 -->
    <_>
      <maxWeakCount>5</maxWeakCount>
      <stageThreshold>-3.6422079801559448e-01</stageThreshold>
      <weakClassifiers>
        <_>
          <internalNodes>
            0 -1 32 -3.2844416797161102e-02</internalNodes>
          <leafValues>
            6.2500000000000000e-01 -7.5892859697341919e-01</leafValues></_>
        <_>
          <internalNodes>
            0 -1 9 -7.4257366359233856e-03</internalNodes>
          <leafValues>
            -8.9989650249481201e-01 2.4844652414321899e-01</leafValues></_>
        <_>
          <internalNodes>
            0 -1 22 7.9577125608921051e-02</internalNodes>
          <leafValues>
            -5.9854120016098022e-01 5.4714316129684448e-01</leafValues></_>
        <_>
          <internalNodes>
            0 -1 31 -6.7954062251374125e-04</internalNodes>
          <leafValues>
            -9.2222028970718384e-01 3.6881250143051147e-01</leafValues></_>
        <_>
          <internalNodes>
            0 -1 11 -9.8570040427148342e-04</internalNodes>
          <leafValues>
            -7.6969444751739502e-01 4.0709075331687927e-01</leafValues></_></weakClassifiers></_>
    <!-- stage 7 -->
    <_>
      <maxWeakCount>4</maxWeakCount>
      <stageThreshold>-5.8874154090881348e-01</stageThreshold>
      <weakClassifiers>
        <_>
          <internalNodes>
            0 -1 6 -7.9032763838768005e-02</internalNodes>
          <leafValues>
            1. -7.4672490358352661e-01</leafValues></_>
        <_>
          <internalNodes>
            0 -1 14 3.9162170141935349e-03</internalNodes>
          <leafValues>
            -7.9739779233932495e-01 4.5209312438964844e-01</leafValues></_>
        <_>
          <internalNodes>
            0 -1 25 -4.9164071679115295e-02</internalNodes>
          <leafValues>
            6.2541639804840088e-01 -5.4801291227340698e-01</leafValues></_>
        <_>
          <internalNodes>
            0 -1 1 7.0850143674761057e-04</internalNodes>
          <leafValues>
            3.6592429876327515e-01 -9.1952615976333618e-01</leafValues></_></weakClassifiers></_>
    <!-- stage 8 -->
    <_>
      <maxWeakCount>4</maxWeakCount>
      <stageThreshold>-6.6404092311859131e-01</stageThreshold>
      <weakClassifiers>
        <_>
          <internalNodes>
            0 -1 20 -5.9199221432209015e-02</internalNodes>
          <leafValues>
            5.5555558204650879e-01 -7.6576578617095947e-01</leafValues></_>
        <_>
          <internalNodes>
            0 -1 19 8.5747480392456055e-02</internalNodes>
          <leafValues>
            -7.1858942508697510e-01 3.8752344250679016e-01</leafValues></_>
        <_>
          <internalNodes>
            0 -1 26 -1.6173359472304583e-03</internalNodes>
          <leafValues>
            -9.2580765485763550e-01 2.9015731811523438e-01</leafValues></_>
        <_>
          <internalNodes>
            0 -1 5 4.0222503244876862e-02</internalNodes>
          <leafValues>
            -5.2572083473205566e-01 6.4000904560089111e-01</leafValues></_></weakClassifiers></_>
    <!-- stage 9 -->
    <_>
      <maxWeakCount>4</maxWeakCount>
      <stageThreshold>-3.1256487965583801e-01</stageThreshold>
      <weakClassifiers>
        <_>
          <internalNodes>
            0 -1 30 -6.6283643245697021e-02</internalNodes>
          <leafValues>
            8.3333331346511841e-01 -7.4561405181884766e-01</leafValues></_>
        <_>
          <internalNodes>
            0 -1 13 -3.6201796028763056e-03</internalNodes>
          <leafValues>
            5.8873844146728516e-01 -6.3788950443267822e-01</leafValues></_>
        <_>
          <internalNodes>
            0 -1 3 4.3231341987848282e-03</internalNodes>
          <leafValues>
            3.9894801378250122e-01 -1.</leafValues></_>
        <_>
          <internalNodes>
            0 -1 36 1.9738713279366493e-02</internalNodes>
          <leafValues>
            -5.5463731288909912e-01 7.3075246810913086e-01</leafValues></_></weakClassifiers></_></stages>
  <features>
    <_>
      <rects>
        <_>
          0 0 3 22 -1.</_>
        <_>
          0 11 3 11 2.</_></rects>
      <tilted>0</tilted></_>
    <_>
      <rects>
        <_>
          0 0 13 2 -1.</_>
        <_>
          0 1 13 1 2.</_></rects>
      <tilted>0</tilted></_>
    <_>
      <rects>
        <_>
          0 5 2 19 -1.</_>
        <_>
          1 5 1 19 2.</_></rects>
      <tilted>0</tilted></_>
    <_>
      <rects>
        <_>
          0 7 11 6 -1.</_>
        <_>
          0 10 11 3 2.</_></rects>
      <tilted>0</tilted></_>
    <_>
      <rects>
        <_>
          1 1 9 2 -1.</_>
        <_>
          4 1 3 2 3.</_></rects>
      <tilted>0</tilted></_>
    <_>
      <rects>
        <_>
          1 5 8 6 -1.</_>
        <_>
          5 5 4 6 2.</_></rects>
      <tilted>0</tilted></_>
    <_>
      <rects>
        <_>
          1 6 8 10 -1.</_>
        <_>
          1 6 4 5 2.</_>
        <_>
          5 11 4 5 2.</_></rects>
      <tilted>0</tilted></_>
    <_>
      <rects>
        <_>
          1 7 9 8 -1.</_>
        <_>
          1 11 9 4 2.</_></rects>
      <tilted>0</tilted></_>
    <_>
      <rects>
        <_>
          2 8 21 6 -1.</_>
        <_>
          9 8 7 6 3.</_></rects>
      <tilted>0</tilted></_>
    <_>
      <rects>
        <_>
          2 9 7 6 -1.</_>
        <_>
          2 12 7 3 2.</_></rects>
      <tilted>0</tilted></_>
    <_>
      <rects>
        <_>
          2 22 22 2 -1.</_>
        <_>
          2 23 22 1 2.</_></rects>
      <tilted>0</tilted></_>
    <_>
      <rects>
        <_>
          3 0 6 3 -1.</_>
        <_>
          5 0 2 3 3.</_></rects>
      <tilted>0</tilted></_>
    <_>
      <rects>
        <_>
          3 0 21 4 -1.</_>
        <_>
          3 2 21 2 2.</_></rects>
      <tilted>0</tilted></_>
    <_>
      <rects>
        <_>
          3 10 3 2 -1.</_>
        <_>
          4 10 1 2 3.</_></rects>
      <tilted>0</tilted></_>
    <_>
      <rects>
        <_>
          3 14 9 1 -1.</_>
        <_>
          6 14 3 1 3.</_></rects>
      <tilted>0</tilted></_>
    <_>
      <rects>
        <_>
          4 10 6 3 -1.</_>
        <_>
          7 10 3 3 2.</_></rects>
      <tilted>0</tilted></_>
    <_>
      <rects>
        <_>
          5 1 6 6 -1.</_>
        <_>
          5 3 6 2 3.</_></rects>
      <tilted>0</tilted></_>
    <_>
      <rects>
        <_>
          5 13 14 10 -1.</_>
        <_>
          5 13 7 5 2.</_>
        <_>
          12 18 7 5 2.</_></rects>
      <tilted>0</tilted></_>
    <_>
      <rects>
        <_>
          6 1 7 18 -1.</_>
        <_>
          6 7 7 6 3.</_></rects>
      <tilted>0</tilted></_>
    <_>
      <rects>
        <_>
          6 5 5 18 -1.</_>
        <_>
          6 11 5 6 3.</_></rects>
      <tilted>0</tilted></_>
    <_>
      <rects>
        <_>
          6 6 3 18 -1.</_>
        <_>
          6 12 3 6 3.</_></rects>
      <tilted>0</tilted></_>
    <_>
      <rects>
        <_>
          6 10 4 12 -1.</_>
        <_>
          6 16 4 6 2.</_></rects>
      <tilted>0</tilted></_>
    <_>
      <rects>
        <_>
          9 2 3 21 -1.</_>
        <_>
          9 9 3 7 3.</_></rects>
      <tilted>0</tilted></_>
    <_>
      <rects>
        <_>
          9 3 7 18 -1.</_>
        <_>
          9 9 7 6 3.</_></rects>
      <tilted>0</tilted></_>
    <_>
      <rects>
        <_>
          9 14 2 8 -1.</_>
        <_>
          9 18 2 4 2.</_></rects>
      <tilted>0</tilted></_>
    <_>
      <rects>
        <_>
          10 2 10 10 -1.</_>
        <_>
          10 2 5 5 2.</_>
        <_>
          15 7 5 5 2.</_></rects>
      <tilted>0</tilted></_>
    <_>
      <rects>
        <_>
          10 7 3 11 -1.</_>
        <_>
          11 7 1 11 3.</_></rects>
      <tilted>0</tilted></_>
    <_>
      <rects>
        <_>
          10 12 4 12 -1.</_>
        <_>
          10 16 4 4 3.</_></rects>
      <tilted>0</tilted></_>
    <_>
      <rects>
        <_>
          12 12 3 10 -1.</_>
        <_>
          12 17 3 5 2.</_></rects>
      <tilted>0</tilted></_>
    <_>
      <rects>
        <_>
          12 15 1 8 -1.</_>
        <_>
          12 19 1 4 2.</_></rects>
      <tilted>0</tilted></_>
    <_>
      <rects>
        <_>
          14 14 5 8 -1.</_>
        <_>
          14 18 5 4 2.</_></rects>
      <tilted>0</tilted></_>
    <_>
      <rects>
        <_>
          14 20 8 4 -1.</_>
        <_>
          14 22 8 2 2.</_></rects>
      <tilted>0</tilted></_>
    <_>
      <rects>
        <_>
          15 7 8 5 -1.</_>
        <_>
          19 7 4 5 2.</_></rects>
      <tilted>0</tilted></_>
    <_>
      <rects>
        <_>
          15 8 8 10 -1.</_>
        <_>
          15 8 4 5 2.</_>
        <_>
          19 13 4 5 2.</_></rects>
      <tilted>0</tilted></_>
    <_>
      <rects>
        <_>
          15 20 6 4 -1.</_>
        <_>
          15 20 3 2 2.</_>
        <_>
          18 22 3 2 2.</_></rects>
      <tilted>0</tilted></_>
    <_>
      <rects>
        <_>
          18 6 6 8 -1.</_>
        <_>
          21 6 3 8 2.</_></rects>
      <tilted>0</tilted></_>
    <_>
      <rects>
        <_>
          21 6 2 14 -1.</_>
        <_>
          21 13 2 7 2.</_></rects>
      <tilted>0</tilted></_>
    <_>
      <rects>
        <_>
          22 4 2 15 -1.</_>
        <_>
          23 4 1 15 2.</_></rects>
      <tilted>0</tilted></_></features></cascade>
</opencv_storage>
